{
  "$id": "1",
  "input_to_hidden1_weights": [
    0.63798257505427225,
    -0.53563702923042555,
    -0.83503859166789263,
    0.36955939297078144,
    0.05378319372133511,
    -0.263152580365144,
    -0.63747085986541152,
    0.39435011213382243,
    0.86845426255299452,
    0.23953254951142355,
    0.94505642072533091,
    0.81822337387978261,
    -0.12832050916194937,
    0.8207994419246909,
    0.31104782750413196,
    0.39113231440593133,
    -0.638910317625343,
    0.077566687519460276,
    0.78848085170075333,
    -0.18174055111310139,
    -0.81249925392330591,
    0.035966733021646213,
    0.38116268784793217,
    -0.23024040238477306,
    -0.22356885542327953,
    -0.53201452714019193,
    -0.90110109834983065,
    -0.6937970135797733,
    -0.40687186429597055,
    0.20663338583271651,
    -0.26558090624462372,
    0.74983404751393667,
    -0.65541890247511625,
    -0.1628072406923432,
    -0.049727523256897666,
    0.054651435955730854,
    0.70670452234647452,
    -0.16839955056477318,
    0.2854101188878575,
    0.91689966149483793,
    -0.69782247566516631,
    0.57911404295783209,
    -0.97440230938345307,
    -0.38288175658457058,
    -0.53274540767667133,
    0.12144176380707528,
    -0.49693980975865382,
    -0.18178608509795091,
    -0.42982298295471022,
    0.83190839077900547,
    -0.5546924209011217,
    0.36232916422296735,
    0.49337127129238634,
    0.657930265021478,
    0.4068903557056982,
    -0.39798415796737385,
    0.083200282921642277,
    0.37417941138808586,
    -0.406871751605939,
    -0.41420227913847296,
    -0.40286693664673789,
    -0.94367384628563833,
    -0.19877802357020691,
    -0.338179123279722,
    -0.32316371487600903,
    -0.80477762678860576,
    0.47364227635489886,
    -0.96551326846960617,
    -0.12947303481841133,
    -0.74360360845159912,
    0.68442779205945681,
    0.52948923293943007,
    0.84253045512978386,
    0.8715811902059154,
    -0.21908714241443483,
    -0.391613296881138,
    0.01036904240509906,
    -0.13537901148724951,
    -0.69749499470810172,
    0.93932321385448958,
    1.0,
    0.28068498674812026,
    0.73602596937493692,
    -0.23878025507497613,
    -0.23867419326616179,
    0.20036710016446513,
    -0.74353722377844955,
    -0.31334916749659425,
    0.43030240360195871,
    -0.65174336528952392,
    0.9714511530340888,
    -0.66747488904161134,
    -1.0,
    -0.30038760197366943,
    0.27895114351015127,
    -0.75414862937952787,
    -0.22210793347196089,
    0.36377681389626892,
    0.94028195829143835,
    -0.72796778088806557,
    0.36346565436733225,
    -0.53142654128904754,
    0.94768694972046053,
    -0.6862193745031111,
    -0.85251940128045134,
    -0.084181653840551873,
    0.57017259559136479,
    0.62179008108647071,
    -0.51412711363012309,
    -0.2014963474131638,
    0.591646799627527,
    -0.68084416151086069,
    0.071674406096187582,
    -0.06886503493392232,
    -0.37912756175693474,
    0.3572635312365664,
    -0.67969981566057536,
    -0.95999776849523077,
    0.9004950699864398,
    1.0,
    0.9387595969898439,
    -0.213008556148507,
    -0.39581567207156476,
    -0.4777296695288874,
    -0.71505476148568781,
    0.35190268110106815,
    -0.061045847629079,
    0.092544170605272091,
    -0.40736995330423575,
    -0.073793991968871042,
    0.83049463659082279,
    0.64659222850883014,
    0.61529161461388027,
    -0.96952721382003615,
    -0.42414244051284267,
    0.49635182390750932,
    0.33299803702765973,
    0.42224534387804824,
    -0.38626085379452479,
    0.84550746057439019,
    0.63019450457310056,
    -0.36532730486492038,
    -0.79922205386647116,
    -0.3682012489848776,
    -0.2433901649170509,
    0.65229531454494927,
    0.26085070486220108,
    1.0,
    -0.92126004021673469,
    0.92168761227358487,
    0.92555118628104749,
    -0.26211016497673012,
    0.46328174390982912,
    -0.53618722666808738,
    -0.66672737787790948,
    -0.42352578948416086,
    0.86438913078251711,
    0.42541661924934782,
    -0.97116461301742341,
    -0.20442208238151949,
    0.62480131426118368,
    -0.52237157501390741,
    0.02916003439070658,
    0.55966687833874817,
    -0.0319909840039867,
    0.66293038658855941,
    0.49539335234807491,
    0.041201619916223731,
    -1.0,
    0.12452061433555595,
    -0.97573450579109344,
    -0.10194515953862349,
    0.42626308529929391,
    -0.94501239058795028,
    0.84627468038642539,
    -0.4711662827954175,
    -0.41378650228203573,
    0.97238557691331273,
    0.94223516681967734,
    -0.36735007603063718,
    -0.90894802376113271,
    0.70634986539667,
    0.01380421082200689,
    -0.32905756557782062,
    0.000654821750081469,
    0.092604801567552908,
    -0.816689515400999,
    -0.64005028719084822,
    0.69720016405787333,
    0.9993833489713182,
    0.6319626931249922,
    0.90758141777831192,
    0.39340995689547142,
    0.81816122858699458,
    -0.7792938536867936,
    0.15256607958700785,
    0.605512660744373,
    -0.35888893220521922,
    0.6637897350191091,
    -0.18844473603574785,
    -0.84309803780312564,
    -0.78035091505402276,
    0.50671969144918,
    -0.045780654552290523,
    0.89742211806467842,
    0.027496345819670864,
    0.31162674972397597,
    0.40829413449777952,
    -0.38246190705451277,
    0.029185720267326465,
    0.99026071279787486,
    0.89200355386920438,
    -0.70639246036596237,
    -0.73678164358100928,
    0.56497529128798063,
    0.53613038898265475,
    -0.5985874373459199,
    0.74111409100755776,
    -0.6211382046440328,
    0.13164573588019501,
    0.84169431209643109,
    0.5624968752090338,
    0.46823964429471632,
    0.79279371434487111,
    -0.93253916498857514,
    0.758511731288634,
    0.23370222059716572,
    0.67357673374110272,
    -1.0,
    -0.94561299120337372,
    0.52570970427510777,
    0.11417677119103109,
    -1.0,
    -0.72121735556107824,
    0.56007507143545676,
    0.66781861878364279,
    0.978461679992481,
    -0.78258410924234623,
    -0.84954777632353262,
    -0.97300062327319781,
    0.046373285840439316,
    -0.84704511791795734,
    1.0,
    -0.12296527862686912,
    0.78039370101175431,
    -0.48609238373399355,
    -0.78010787152690253,
    -0.67978575810780084,
    0.058212061905400958,
    -0.596150727754529,
    1.0,
    -1.0,
    -0.23592960240129823,
    -0.23840233648121467,
    -0.31212528390443195,
    -0.85819803078574974,
    -0.48980524925971647,
    -0.66483799352535877,
    0.8682878622171879,
    0.17671027275580453,
    0.10712439059611612,
    0.82090666229878861,
    0.044750330524868431,
    -0.11617342341513071,
    -0.59178886729841529,
    0.19751440510038032,
    -0.542604633393979,
    -0.98517510480488424,
    -0.29685671501646593,
    0.89715667250433784,
    -0.075365842800784955,
    -0.81600332810357368,
    0.59066186733109038,
    -0.648137581370835,
    -0.91472754996024419,
    0.68873943001438831,
    0.75900047354353606,
    -0.40879507707841467,
    -0.66731455161576836,
    0.97960163162777181,
    0.53861960281553656,
    -0.086512021295033437,
    -0.35731175139421212,
    0.7633764388800488,
    -0.89656881424438617,
    0.39899152023670803,
    -0.64989362640767068,
    -0.8557633635847659,
    0.59090792834335382,
    0.41827310222120628,
    0.71454043822931612,
    0.64329967351783979,
    -0.650871971459534,
    -0.026258049079337153,
    -0.080125013869314032,
    0.2254666235416507,
    0.10820455155717412,
    -0.080330174919371555,
    -0.53117641132845383,
    -0.73740613913974085,
    -0.94348775034001453,
    -0.79493276672201829,
    0.6170709569086652,
    0.16105538940106312,
    -0.15381943674470266,
    0.76695915114458613,
    -0.46394368329269053,
    -0.58779202103046324,
    -0.32367478652097037,
    -0.00086471391882037008,
    -0.6171985043292858,
    0.91898982781869809,
    -0.99752344190959052,
    -0.68526535652823062,
    0.638090669940268,
    -0.80636358810885045,
    0.17821841369300073,
    0.026076984587460772,
    -0.21960460917074443,
    0.00921961246487668,
    -0.0053347652899211617,
    -0.68684126980921312,
    -0.576083033148238,
    0.28487018276232767,
    -0.26046719553902153,
    0.914369035472334,
    0.83486864335596023,
    -0.38308008358957246,
    0.43198743249847893,
    -0.14019417350189489,
    -0.41946512154278581,
    -0.16066935153709228,
    -0.877618665749961,
    -0.92990841247602762,
    0.49704096908543294,
    0.33355236953755485,
    0.29641702179630158,
    0.48163285920472476,
    -0.082804124375248422,
    -0.6635279653889723,
    -0.13706479647060144,
    0.30956181944793171,
    -0.41900732713705269,
    -0.39363614720927376,
    -0.50258358917319379,
    0.78662186851102023,
    -0.87554575590209371,
    0.026608035446427758,
    0.27841064020917305,
    0.90577751805548357,
    -0.70229196348334288,
    0.35098176884976295,
    -0.15568086372487289,
    -0.77425053518929077,
    0.60263763908419654,
    0.73688033304031952,
    0.77512681008089657,
    0.51741975244014515,
    0.64670274110823067,
    -0.58335231597691417,
    0.8792692692388171,
    0.992381936866968,
    -0.69581888974449546,
    -0.851267743786456,
    0.17024232687905538,
    0.68061553392587948,
    0.82333242978124521,
    0.44505531128731346,
    -0.12904923648063527,
    -0.10457168757197055,
    0.18502663876164083,
    0.81247786423772483,
    -0.021102908542893317,
    0.98687074798479246,
    -0.652628362017045,
    0.60621326864055036,
    0.27471548005692448,
    0.47271815010938711,
    -0.88118793996106271,
    -0.816500884395326,
    -0.48620179178482004,
    -0.33036504468431926,
    -0.21682836823949048,
    -0.46702749722964476,
    0.010546409995549455,
    0.44502957791324227,
    -0.05769319602180889,
    -0.86584666923892062,
    -0.16102899571928619,
    -0.3537058827251689,
    0.21367206667255245,
    -0.928763486411778,
    0.53228494223779288,
    0.469579506418472,
    0.19264093655750192,
    -0.85937106323399171,
    0.0053807091924271688,
    -0.56773958335059671,
    0.43612152591167086,
    -0.18319912309907338,
    0.96328943872977479,
    -0.32060106718940706,
    -0.844342728072937,
    -0.61701767221885628,
    -0.28736159544780926,
    -0.51476982772106761,
    -0.62791532260734373,
    -0.14255161170966535,
    0.87837782682775423,
    0.996424370443646,
    0.20218354173304887,
    -0.69759134002849055,
    0.39860769240120786,
    0.46320362550355654,
    0.902849475807906,
    0.20963431392313647,
    0.20921030510645844,
    0.77120860748514941,
    0.13818584621799457,
    0.72521274896581311,
    -0.26169127005231163,
    0.68917909902016583,
    -0.39391569299340046,
    -0.77534335375546637,
    0.68175624575547689,
    0.1137901251734188,
    -0.71980707800006827,
    0.50931758503863467,
    -0.20577018857270957,
    -0.79325729878305329,
    -0.39916744055187681,
    -0.1575449365924787,
    -0.96340337580228386,
    0.30201118313801056,
    -0.77979032312510088,
    0.834399275404587,
    -0.48602231661138229,
    -0.59981069602063419,
    0.82033409821816439,
    -0.47468376228338283,
    0.072944900520586,
    -0.91514158431214354,
    -0.74422449606667485,
    -0.15745336616293215,
    -0.81587073570856394,
    -0.088736593298957,
    -0.32737117881298583,
    -0.93091868326576366,
    0.566730030610566,
    0.98300662263436545
  ],
  "hidden1_to_hidden2_weights": [
    -0.84167214009988689,
    0.34603088691180139,
    -0.37914357677993527,
    0.91319813109617587,
    -0.60735896490856955,
    0.954454887637149,
    0.22995430288368568,
    0.16552354170266703,
    0.49638007744046853,
    -0.91472514342271027,
    -0.35100326377479507,
    -0.7152607653826758,
    0.745199904658459,
    0.99476750939840808,
    0.15707486176727104,
    0.76872579090703552,
    -0.61562365834397437,
    -0.89804299636652829,
    -0.70438376055303209,
    -0.27356191597579138,
    -0.58087809736881324,
    0.54436691922339,
    -0.19056412260540023,
    0.25312086159974378,
    0.089572024107711368,
    0.40583620192754832,
    0.46746957649824661,
    -0.42768574293129413,
    0.96403626071477144,
    -0.80586742041905757,
    0.91516374699546188,
    -0.14464446862444491,
    -0.43011998824315145,
    -0.94972262808574481,
    -0.32604015494046745,
    0.45987327651114818,
    0.74448257020883379,
    0.45483835481798196,
    -0.030671500149495712,
    0.96629214192102286,
    0.2341153199011996,
    -0.70264657200437353,
    -0.93709297102740641,
    -0.71432686397541634,
    0.86323124629595838,
    0.34757967356014041,
    0.278891550041219,
    -0.11363439965696742,
    0.90605254373795008,
    0.20315491650400452,
    0.070822909973013548,
    0.14273583755955843,
    0.845097907746722,
    -0.68212010044703264,
    -0.26241059846357007,
    -0.985091896720739,
    -0.46481480051987567,
    0.05463608869101666,
    0.58900542910630138,
    -0.562897138094016,
    -0.78592968163356636,
    0.3683511891254927,
    0.65350364225614044,
    0.2576668454602673,
    -0.96551936211321476,
    0.99332135636048458,
    -0.7764656086342715,
    0.5889460237645292,
    -0.19845684766697547,
    0.8855582363370611,
    -0.57084757628424443,
    0.70529904668466137,
    0.43481107216086756,
    0.54045013037531175,
    0.58902673217888313,
    -0.26473908185248218,
    -0.38615903788533013,
    -0.44900690738531146,
    0.67429742667558479,
    0.79925676519016586,
    -0.0959160835928824,
    -0.018270907466426012,
    -0.87914533255582,
    -0.2043722147142385,
    0.60321976971031166,
    -0.24340762069607513,
    0.68672248799666868,
    0.75095644115980553,
    0.31268797037782514,
    -0.34094825821972841,
    -0.075311922968976153,
    -0.31015351848218287,
    0.86583292571168058,
    -0.46777436205547973,
    0.75222182355458944,
    0.86576413077570691,
    -0.35615021426051396,
    -0.1947598164876736,
    -0.74880750186220157,
    0.8699098899354738,
    0.12404528219441202,
    0.68994552627668981,
    -0.915177551989992,
    -0.97950569259911113,
    -0.22599750721175105,
    0.36552386328835218,
    0.70792476539869087,
    -0.69535222262858976,
    -0.27114683262591566,
    -0.99767151661108788,
    0.40106714116459119,
    0.98419210686543579,
    0.38033866201543187,
    0.78974866391613552,
    0.53301894549886653,
    0.23234122583285966,
    0.24749652168131275,
    -0.14212414302962095,
    0.65444707574995564,
    0.27788825858286037,
    -0.69340113163618422,
    -0.52742204979407692,
    -0.72374194661329594,
    -0.85750858944724717,
    -0.039129840693962636,
    0.73930594219793844,
    0.83946612097298079,
    -0.0974145657836527,
    0.78822830682072254,
    0.72326260140317622,
    -0.90858886759196822,
    0.80860077860234347,
    -0.70019940552310989,
    0.804387536740111,
    -0.32478851700424616,
    0.2141383901304279,
    -0.10309335547643406,
    -0.89963963995670881,
    -0.97837470750248745,
    -0.76230409357804063,
    0.048667613905234,
    0.38207471062525866,
    0.022103273785721189,
    0.310359486988913,
    0.25798460061568051,
    -0.059504029834412053,
    0.30950781950238526,
    -0.92391573820445494,
    -0.00079330755434614542,
    -0.53611920193588325,
    0.37720649287905839,
    0.20767604150235464,
    0.42731869845991888,
    -0.98490188456368721,
    0.91083944305350983,
    0.15870375985219321,
    0.41617661407970674,
    -0.786341716435897,
    -0.86969724105191282,
    -0.88370410999455684,
    0.65167540388725476,
    0.53457530286841815,
    -0.46799054810218077,
    -0.41833670223985642,
    0.46787431997613727,
    0.12353203963652804,
    -0.58404155801238566,
    0.20612184945779011,
    -0.16801702658087803,
    0.057762924143002881,
    0.81008765651382864,
    0.96331372669120952,
    0.16120728904437609,
    -0.10018449234784788,
    0.57690064496216387,
    -0.069345443076149316,
    -0.4336441035539117,
    -0.74219726572846867,
    -0.559010173920081,
    -0.1669686302388872,
    -0.81289724251855966,
    0.14062796772486896,
    0.24311731627356137,
    0.68584032807771123,
    -0.84314463280287788,
    0.59775843359425584,
    0.85559123840909046,
    0.38464023423597227,
    0.31278567636049615,
    -0.35032332378920328,
    -0.33364659237379513,
    0.894501402925002,
    -0.33558316032196545,
    0.31557058976756891,
    -0.26266050397542329,
    0.62226449494355562,
    0.67472669001423125,
    0.10025146096025206,
    -0.46191460427917286,
    -0.18817892725960306,
    -0.84560127921663286,
    0.01925013168680012,
    -0.56051415277668937,
    0.17493045477891833,
    -0.34620685844971189,
    0.41389276618784887,
    -0.95353124754202145,
    -0.47249680919223314,
    -0.56180252952585108,
    -0.019815113870340961,
    -0.4076521365938951,
    0.1583738798081753,
    0.772668457484184,
    0.29727138918697427,
    0.92919313252400282,
    -0.48895256383761421,
    -0.70854201340514322,
    -0.153830876179892,
    -0.57519206943697854,
    0.8701158863818812,
    0.2679408012274378,
    0.031318207751642069,
    0.893336173097294,
    -0.81769370279167486,
    -0.6085904834832021,
    0.91558625358882662,
    0.29889688701317496,
    0.84563669927680718,
    -0.83752398837242459,
    0.95463615001860824,
    0.25592786690961944,
    0.46610443548583635,
    0.7197173385507043,
    0.629168753339522,
    -0.32136735102225433,
    0.16785262579464,
    -0.29885787949844167,
    -0.931813138505357,
    0.032047186527423221,
    -0.25703739899072675,
    0.5512896811362773,
    0.32808804760132371,
    -0.053557236238176542,
    -0.66739920976916289,
    -0.94267118719530818,
    0.50797952781802946,
    -0.878167054559182,
    0.36714545049106029,
    0.38637745724356609,
    -0.77370794013780908,
    0.33080650834869907,
    -0.17144243380587665,
    -0.3245564696027694,
    -0.33203049066105417,
    0.54388027151295937,
    0.12308051303172518,
    0.12591395858950638,
    -0.74282044998501451,
    -0.21647906173787967,
    -0.26179311203853839,
    -0.46246104383024433,
    -0.10197913046087093,
    0.26676203183213354,
    0.80918358350600283,
    0.44171155870040479,
    -0.33110985408123106,
    -0.98016123752117212,
    -0.67570780481943293,
    -0.56254058590277123,
    -0.12678901624250649,
    0.52227519709722836,
    -0.51552811242431784,
    -0.7395357069277837,
    0.032020749073485177,
    -0.88898969809012007,
    -0.16397953739575089,
    -0.31063961484964919,
    -0.97136254886694373,
    0.42448827411257106,
    0.647415770984914,
    0.054555133476180462,
    0.15535055061585767,
    0.898218467784216,
    0.57568045872062457,
    -0.59659732580026481,
    0.661443604930045,
    -0.04738020386890518,
    -0.80209355140202376,
    -0.098374759358528463,
    -0.50234490516704733,
    -0.15474419349559776,
    -0.9507950581381075,
    -0.547766197262223,
    0.36046254884473172,
    -0.76676519297378376,
    -0.58542191311038194,
    0.66046596488937093,
    0.78756492481919227,
    0.53449076299299048,
    -0.59899610169185147,
    -0.23707146813956626,
    -0.057993179679845075,
    -0.42666466786836488,
    0.71773617422102776,
    -0.84203722506856415,
    0.75775604870065871,
    0.21475431379617849,
    -0.66153719819222445,
    0.91881473265533087,
    -0.25262921548105277,
    0.91468204553922727,
    0.88998479856643109,
    0.679366528838578,
    0.011378298984551005,
    -0.56675894351990852,
    -0.60381782967775033,
    -0.49700423213513767,
    -0.042669817359498596,
    -0.57745202424817355,
    -0.24747340252970973,
    -0.034609758776896538,
    -0.92356901053505436,
    -0.24494822846956,
    -0.84645393576773531,
    0.10711935214098523,
    -0.60387687273504065,
    -0.46758872711453059,
    0.84382972486495489,
    0.56292994486304471,
    0.13148913585184574,
    0.2638122920244057,
    -0.46872106169756556,
    -0.66576213280938668,
    -0.078433909024314019,
    -0.32726872401650475,
    0.071258600368750535,
    0.210363278729079,
    0.36972672183519539,
    0.41604606314378145,
    -0.78924839375039957,
    -0.31455247351646076,
    -0.75686157576593649
  ],
  "hidden2_to_output_weights": [
    -0.38687002444028384,
    -0.26031396037913579,
    0.50210599857480553,
    0.21982097310005733,
    -0.59738611969975108,
    0.30264760428231563,
    0.70633801431690246,
    -0.29421134167081275,
    -0.36839807004127567,
    0.48958535189255392,
    0.098090121102561323,
    -0.045108438956136143,
    -0.37755181332004806,
    -0.7723510580939944,
    0.62762157322262491,
    -0.97851058932883228,
    0.78327823699604648,
    -0.90761317960341148,
    0.97336140180628816,
    0.4476489738783096,
    -0.48375187231402461,
    -0.46644936570266693,
    -0.57345378472164921,
    0.37540779047431783,
    -0.34083383872212558,
    -0.24219956213710814,
    -0.66135297699894435,
    0.36198245611134094,
    0.18581889159317067,
    0.13326904602966683,
    0.54128411949672,
    -0.788203630497774,
    -0.932920929013249,
    -0.27774818301096005,
    -0.060489799389843779,
    0.991538867350453,
    0.9324180166853675,
    0.31370734298308722,
    0.29848843687143578,
    0.51237460855039507,
    0.15437624564132468,
    0.61959527973998108,
    -0.55123692823165893,
    -0.0035388073900429751,
    0.74462774104654228,
    -0.46818604947448994,
    -0.57165415565094646,
    -0.53048710596304716,
    0.15989104153583345,
    -0.72449375862464949,
    0.24004398437218932,
    0.60749783721170281,
    -0.66783032271444354,
    0.23779855260522975,
    0.72689029654808812,
    -0.39662984544254365,
    -0.66303331109836394,
    -0.15427974292742075,
    0.13424584788002347,
    -0.66016574746936829,
    -0.31861035866598153,
    0.32747102311228926,
    -0.24248422647010737,
    0.54945701805383762,
    -0.27393302008227116,
    -0.42514517224633375,
    0.73534484567835223,
    0.77096842963759249,
    0.26370818133638618,
    0.91982869148246427,
    0.0024390206683608806,
    -0.18402460552008104,
    -0.48994021093935713,
    -0.63379267958635122,
    -0.7067272717630152,
    -0.1033471520540058
  ]
}