{
  "$id": "1",
  "input_to_hidden1_weights": [
    0.36235201856245575,
    -0.52316511865852644,
    0.79133104988901448,
    -0.92468063809195566,
    0.259945207862158,
    0.56416007669836277,
    0.62668031902363541,
    -0.71833282509741037,
    0.21118797883912355,
    0.15219071190342992,
    0.40157390078603017,
    -1.0,
    0.50298295519453617,
    0.53340043478338073,
    -0.44433947394090029,
    0.90746084689510087,
    0.39161208150517757,
    -0.68255429793268174,
    -0.60197755489590465,
    -0.18510763774863803,
    -0.26014915539890027,
    -0.44159431170746422,
    0.39189872862393904,
    -0.22251236216282111,
    0.27602483626540747,
    0.79041151599512038,
    -0.36240241181217248,
    0.623249037947156,
    -0.004557429349309472,
    0.53648530390881244,
    0.40397747950813612,
    -0.55711730770355472,
    0.27372900828427116,
    0.1565708095005578,
    0.29124475237505743,
    0.28585089523617691,
    0.11745957895995107,
    0.51782095875489564,
    -0.045901890221337172,
    -0.44674119886324792,
    0.70787847407231153,
    0.14145425480858154,
    -0.10688597201690353,
    -0.343423036552697,
    0.34778110961092079,
    -0.35119840845055805,
    0.58511524535022463,
    0.63990814967076681,
    -1.0,
    -0.07639808351006272,
    0.37403317511735157,
    -0.34878948673083887,
    0.53460189771587108,
    -0.010903913998465908,
    0.06951524832729028,
    -0.74362580652517529,
    -0.21565533951653881,
    -0.16956675759030826,
    -1.0,
    -0.014077974024265028,
    -0.20908743106251926,
    -0.25285856018441666,
    0.438467884174766,
    0.14726049854307674,
    -0.43562908164953307,
    -0.9276365879586137,
    0.71936740247503272,
    -0.063430682319882692,
    0.35734808896852122,
    0.68952987421747758,
    0.23068023902861423,
    0.56985613031771787,
    0.77973465983743528,
    0.30560970180929159,
    -0.64221198001979474,
    0.61487440188176667,
    -0.60821271017576228,
    -0.52018653579064944,
    -0.89506778209240534,
    0.99322324525249339,
    -0.60803055558727614,
    0.84426315587212475,
    0.11652021441446636,
    0.072307880535865232,
    0.17558531052227377,
    0.56518917417395365,
    -0.2078623665533319,
    0.58759015965628913,
    0.89117393823860858,
    0.15353168973398002,
    0.49098329129208973,
    -0.0997451195026492,
    -0.84653459761596039,
    0.608061963509797,
    0.505989062290593,
    -0.538979793684082,
    0.1678421297892192,
    0.16298276892070795,
    0.073401716106292758,
    0.234029610284618,
    -0.61913377773907685,
    -0.65164218081703518,
    1.0,
    -0.29608013448122894,
    -0.252464798862331,
    -0.88758943597208217,
    0.67305098458800972,
    -0.46625570834905639,
    0.722598642912972,
    -0.017209505204674569,
    -0.9936192436114043,
    -0.10037707681785202,
    0.64026296867069932,
    0.687744290422529,
    0.12682782724817643,
    0.5675877805648315,
    0.47962599968520281,
    -0.69583559580884669,
    -0.66811450275970374,
    0.99511870089691068,
    0.40254075145467216,
    0.067564629515430186,
    0.047094248722816978,
    0.079023763108543976,
    -0.016337472487398141,
    0.92997527957427106,
    0.63628838668154108,
    -0.25271069037388572,
    0.79573884783114246,
    0.079219538289690083,
    0.88528021140269941,
    0.95433621944595881,
    -0.59412743620050268,
    -0.28078350111878636,
    -0.10337887196958939,
    -0.57365787288810033,
    0.34331248204378051,
    -0.64904761111785081,
    -0.27233171708524773,
    0.22162927744054661,
    0.10857235319380298,
    -0.9750188970821998,
    0.14333693363859168,
    -0.9383507203023651,
    0.40058362369337885,
    0.47315516577714822,
    -0.29879137189071225,
    -0.7262177922419355,
    0.61846029926951052,
    -0.66257694906675113,
    0.71459408556790738,
    -0.66473240762238039,
    0.93198649582079907,
    -1.0,
    -1.0,
    -0.90093161161101032,
    0.39982550935811623,
    -0.76627746399784347,
    0.91873064633399748,
    -0.041184922233775678,
    -0.14031221863828236,
    0.66918027571829986,
    -0.69113193903636749,
    -0.24836318625526654,
    0.51065367251199367,
    -0.88533167535687407,
    0.013326664927101994,
    -0.9651585286320925,
    -0.016107847455939184,
    -0.65131481627529242,
    -0.49987176782445597,
    0.072986566029948463,
    -0.23868047503693046,
    -1.0,
    0.90064622270904771,
    0.078126094806066693,
    0.88470107311601809,
    -0.9757421962693742,
    0.093724204736633343,
    0.82347160103892514,
    -1.0,
    0.6754178924837233,
    -0.87294370023205115,
    -0.89950179552576492,
    0.56796882095186452,
    -0.4571900570100127,
    -0.64151767345216015,
    -0.46227951136523837,
    -0.20722588902287353,
    -0.84407657657008461,
    -0.61994619091038883,
    0.046707757304752073,
    -0.167099206320522,
    0.32920657160189304,
    0.3286216153430852,
    0.92594998512694149,
    -0.1154662841537345,
    0.42273813366086133,
    0.655436074200755,
    -0.53825091083452614,
    0.968463588491298,
    0.72630088018546846,
    -0.014082072606395824,
    -0.85730574459643372,
    0.041809857376762682,
    0.31539608971932731,
    -0.41530470895362304,
    0.87812946358608523,
    -0.086736001580364985,
    -0.85838204056880529,
    0.20498862266772822,
    0.63637672999705042,
    -0.9856068193845483,
    -0.46815184013366318,
    0.32381597809567181,
    -0.77476500709297369,
    0.62586725392652087,
    0.58496383465126334,
    0.25086538551881232,
    0.82847074597537085,
    0.31487355908140247,
    -0.7705661681343644,
    0.17090886140750206,
    0.072826606660927551,
    -0.86013109509839258,
    0.46348972423047008,
    0.69728661686986992,
    0.12863696232840272,
    -0.0063991812087591526,
    0.97469623758210622,
    -0.80640762104019881,
    -0.53803706054484335,
    -0.013134057174033487,
    -0.36802488442884052,
    0.85500801254762715,
    -0.54996748433912523,
    0.90303736920609956,
    0.98436204436438257,
    0.18387171681219328,
    -0.74742726876746268,
    0.95811465194361034,
    -0.51964713703824539,
    0.62445649021512661,
    0.043406009228623477,
    -0.049065199237812829,
    -0.25632292090743913,
    0.032314576689300489,
    -0.69894736618685882,
    0.66764266028424846,
    0.1033866224360589,
    -0.69991726879957938,
    0.29956988119500227,
    -0.828127251857951,
    0.82696532822538416,
    0.14687553008407139,
    0.7390297566256625,
    -0.44460798122203349,
    -0.46497582805574678,
    0.63624407799739591,
    0.05911801113060855,
    -0.79031687220107616,
    -0.68249649353441622,
    0.48247341228764196,
    -0.83896414183031964,
    -0.34276067993732195,
    0.34038063480536485,
    0.691586927367182,
    -0.59488816354185725,
    0.55411575713852224,
    -0.95207835545394492,
    0.18592027443736803,
    -0.12728017211865206,
    -0.438023059367213,
    -0.80719190920106687,
    0.90275795473845588,
    -0.96978872361117452,
    -0.32841304099579016,
    -0.90482046171315966,
    -0.16396993452867958,
    -0.48065981524095858,
    -0.35692272849787909,
    0.35815295919689949,
    0.17062748278054762,
    0.11030898481156171,
    -0.41260390701359317,
    -0.64908745418879066,
    0.40355158290059845,
    0.40604987419123656,
    -0.00629246747414236,
    -0.359326149325567,
    -0.417107107777664,
    -0.73091289295391781,
    -0.32338370630675173,
    -0.5616799609557166,
    -0.98076650406269661,
    0.78712555011134855,
    0.96285668851940742,
    0.92207705877818036,
    -0.2778753738933713,
    -0.95481921078395993,
    -0.99198532476648,
    0.1150207412964761,
    -0.30939681516466511,
    -0.14666694735487318,
    -0.15094266339373164,
    -0.81225561807502789,
    -0.23279116267002709,
    0.80307882549384546,
    -0.76554099831988154,
    0.14870038868333224,
    0.73352762485552936,
    0.93507337474034791,
    -0.2452486081887045,
    0.7580353961130768,
    0.26138741861162118,
    -0.44539291199547837,
    0.96177707331337836,
    0.29572686706470641,
    -0.73461260541091322,
    0.36812548682471991,
    -0.15983862390734194,
    0.80049911504634608,
    0.28197489645424056,
    0.56953049151670676,
    0.70618498404798324,
    1.0,
    0.060106384130244273,
    0.67530906557818371,
    0.19669179394687153,
    -0.45736215331468832,
    0.55508592517817679,
    0.76278543088714845,
    -0.12045430537334378,
    0.038032171799816217,
    -0.982715500510631,
    0.66742764491002426,
    -0.70089069833089157,
    0.78400365811959083,
    -0.13462535158480771,
    -0.682518361919801,
    -0.483757205998412,
    0.48120535979103551,
    -0.0066296155595358952,
    0.24160741793066598,
    0.061261662776238124,
    0.59463765540045532,
    -0.12325966689887447,
    0.06653915302201141,
    -0.7882035410908067,
    0.96384712306961751,
    0.38489437260892911,
    -0.43195542852950997,
    0.73808023572996029,
    0.30295969885911789,
    -0.27921466402672912,
    0.85633848042056826,
    0.032613464862122354,
    -0.429761800649465,
    -0.41901784270024756,
    -0.34843028772083595,
    -0.095013728875207537,
    0.9289217535075367,
    0.095437936994916761,
    -0.20728856195103773,
    0.014499371412442619,
    0.87314280116611287,
    0.80041603269074857,
    0.29034001347159033,
    -0.59626580383454719,
    0.088212651707330947,
    0.75301428407105342,
    -0.37685359985421119,
    -0.24380769731654217,
    -0.643663689328201,
    0.52180298581803353,
    -0.023721479356159203,
    0.10261664963449202,
    0.26794225222800971,
    0.65187409783335126,
    -0.70824954552028774,
    -0.38693292410435753,
    0.0534244603726195,
    0.15328504291981693,
    -0.20337830446817828,
    0.15774347407638256,
    -0.012958646292313358,
    0.89422464924595535,
    0.57658599576753833,
    -0.42114775910068247,
    -0.83905398093119921,
    -0.67229720376073254,
    0.72887110231857322,
    0.20302150081983839,
    -0.78619506386397175,
    -0.98257302119516443,
    0.69538035043300139,
    -0.69324060049524561,
    -0.38501808298054063,
    -0.9009136044890218,
    0.76696203824456877,
    -0.92901541289361911,
    0.67936525758326294,
    0.096170401965758212,
    0.27590317711043322,
    0.96273377535992011,
    0.34994953243007476,
    -0.28377948109236517,
    -0.14459055867784371,
    -0.017081002247091859,
    -0.58145176879197913,
    -0.68176267281256742,
    0.028004304053263818,
    0.48441454464775258,
    0.28908079736357584,
    0.26726811345073775,
    -0.4972046922501987,
    -0.24806093296411491,
    -0.14149092936026442,
    0.72700198913319136,
    -0.56352835221380382,
    -0.28219033464891385,
    -0.59497833419357349,
    -0.97347853238390691,
    -0.39286142373125132,
    -0.45174287327180751,
    0.74118309176582065,
    0.047446996780980133,
    -0.94172389616338714,
    -0.76950870909239577,
    0.36307799786472605,
    0.029665994937376094,
    0.67133687514408336,
    -0.3745126674764383,
    0.81197401220536514,
    0.4872045089739947,
    -0.6646213203969511,
    -0.785229831833965,
    -0.72767786017045277,
    0.98850785195292334,
    0.34449616695963603,
    0.52776605691285949,
    0.32313793214184128,
    -0.99217392038189522,
    0.83349537339993818,
    -0.62076791265083853,
    -0.8020765454518034,
    0.61990444847283088,
    -0.42341812580051741,
    -0.44025496646773765,
    0.3038833193964714
  ],
  "hidden1_to_hidden2_weights": [
    -0.020324239982443038,
    -0.77404329728989085,
    -0.074677789152915452,
    -0.97407816721782,
    -0.55486086828394832,
    0.90705186310552621,
    -0.72959816256984977,
    -0.67069252471937446,
    0.60694389213199917,
    0.29082142435518166,
    -0.34029479480362257,
    -0.36069719370487019,
    0.08345852563318723,
    -0.19380617756108109,
    0.61536657699168029,
    0.635463871823374,
    -0.43532621741077215,
    0.27130249481243207,
    0.83963212270272525,
    0.75705430831623,
    -0.65097456316043367,
    0.6556904975584199,
    0.99012654274242307,
    0.51772623207314239,
    -0.68432552166484562,
    -0.031618866618545183,
    0.81267992398360733,
    0.15903977731198071,
    0.62522028276008568,
    -0.12772243988128496,
    -0.77915158019361619,
    -0.44220329329474051,
    0.56081554459445893,
    -0.2717319760805611,
    0.70002515600064075,
    -0.83804731156586076,
    -0.8323680962586627,
    -0.58295769038747891,
    -0.43762027446069762,
    0.82183364956725091,
    0.43161773748305521,
    -0.702638983588032,
    0.90512012779019768,
    -0.97813399321312733,
    0.65636500420810884,
    -0.020949192820558848,
    0.33338709237677366,
    -0.91555383797527934,
    -0.12991360534444152,
    -0.35282946440988661,
    -0.99392508808240532,
    0.79088711449452065,
    0.26233490801525061,
    -0.87238657189178581,
    -0.40827190662188073,
    -0.17978680281889947,
    0.16473937647637893,
    0.4263875984709653,
    0.31238457528519659,
    -0.052310052817831743,
    -0.48585517959941882,
    0.46214920164186,
    0.467524731283786,
    -0.80721397875212786,
    0.47195943606642987,
    0.61554765590259231,
    0.68581160702081934,
    -0.51533770818046187,
    -0.54619291310486984,
    -0.63562122249771891,
    -0.96949152088234736,
    -0.71953597651772938,
    0.39216728852697047,
    -0.98220152686452566,
    -0.67456342916682521,
    -0.94833557957240178,
    0.750570369768222,
    0.96826053595555051,
    0.86136122786503333,
    0.33662367115571334,
    0.634994041004681,
    0.72823376195888678,
    -0.71104661734357788,
    -0.021950252830027717,
    -0.13379735179887964,
    -0.57003869468813706,
    0.29546179869000877,
    0.43320211648624496,
    -0.86346006945868026,
    -0.12018804118045978,
    -0.0027866880422395823,
    -0.25875569472962789,
    0.1046577343273245,
    0.61468977835713412,
    0.30768882916666973,
    0.96946853584119519,
    -0.17016371487181803,
    0.71233410654232565,
    -0.4500934292795572,
    0.10784663125306682,
    -0.89639157051983831,
    -0.63730392495044685,
    0.18778079430935013,
    -0.83635075196453867,
    0.8687881305202787,
    -0.64423790371242817,
    -0.35780306875603418,
    0.66992230232335737,
    0.37850105547276369,
    0.057949902982427748,
    0.52888351843174708,
    0.47520505985021821,
    0.075171460898207254,
    0.89462560503493327,
    -0.36057807568487621,
    0.25955682865323348,
    -0.70908721802248031,
    -0.26032474043794196,
    0.82238518904074343,
    -0.26048696192935439,
    -0.63692383916905326,
    0.28873787414689445,
    0.89541879943358649,
    0.24439192714374136,
    -0.19569998569586311,
    0.58566066324043109,
    0.62388109118858392,
    0.80127789350286038,
    -0.4476909690758637,
    -0.44685996856859889,
    -0.76920352772306821,
    0.7675771265139697,
    0.040710830614301807,
    -0.67754398643856129,
    0.14887525474134611,
    -0.34763735968043907,
    -0.17857028785095097,
    -0.46824165315751065,
    -0.37321327690650397,
    -0.80083490712607042,
    -0.67708602066947421,
    0.81135808295167888,
    -0.50782558485298679,
    0.0635482403745633,
    -0.57307116015491588,
    -0.93786697924969109,
    -0.31307681804200482,
    0.33288456654776111,
    0.862392811040577,
    -0.851987303165713,
    0.59135179388865455,
    -0.63070357014923517,
    -0.57612714244803742,
    -0.85338042762753574,
    -0.72581625251370308,
    -0.024249718070146531,
    -0.22601075900067147,
    -0.074024810955871323,
    -0.064099989395635215,
    0.38513022353180237,
    -0.52908981103873343,
    0.6308216795468804,
    -0.15982012132174339,
    0.043449533657845762,
    -0.84865242142633179,
    0.6046276481843682,
    0.95794179195442331,
    -0.48956709797008291,
    -0.39525334695133074,
    0.88354101119727879,
    0.53058322497205035,
    -0.19211372229834722,
    -0.52826843854424932,
    -0.32468165146404959,
    -0.62485007831121331,
    0.322160008047782,
    0.40185689525765222,
    -0.5850002819602379,
    -0.87394305312724,
    0.22810423897025367,
    0.72906669402917235,
    0.41974338396440425,
    -0.64991932718545165,
    0.30812919759570123,
    0.98636681585869135,
    0.24996258842291441,
    -0.8198351710195817,
    0.32803316196800814,
    0.85944967430990649,
    0.53007044248751845,
    0.80240452466644552,
    0.097129990857620641,
    0.49576963833336229,
    -0.92247843273099439,
    -0.78172690038649684,
    -0.54487635546590962,
    0.58948984443651975,
    -0.11118918988443405,
    0.60946297999912091,
    0.14626635850698988,
    -0.98362067620438554,
    0.283201076687873,
    -0.14078666136636708,
    -0.518140208683042,
    0.14674077981465539,
    0.64614729566785845,
    -0.33620034313583758,
    0.72175842603750451,
    -0.093778877097079,
    -0.80694760745714778,
    -0.981692903666614,
    0.63540671655694325,
    0.12592577986695153,
    -0.91698928452888007,
    0.9001781846863115,
    0.029137604417809104,
    0.50856021955076613,
    -0.8498278632060754,
    0.67752272341285025,
    0.37304515176128827,
    0.33870778760812614,
    -0.28339641973534435,
    0.17502990419744968,
    -0.58825434911449181,
    0.80197391929196837,
    0.56008627152074419,
    -0.41325467797613458,
    0.76922928065491347,
    -0.844063991608128,
    -0.0653958828493002,
    0.85797326632680981,
    0.12975006789423071,
    -0.40452425061004438,
    -0.84815936062864927,
    -0.81712874854781137,
    0.932953349283409,
    -0.47264393953263939,
    -0.1495009731266187,
    0.82070035479064107,
    0.50169100496065377,
    -0.20969137791995485,
    -0.29915982172785316,
    -0.18833047393166014,
    0.38463315059646641,
    -0.684302396925307,
    -0.450321351853349,
    0.752115065116489,
    0.08939839764004498,
    -0.55651892887266308,
    -0.56185351664286731,
    0.97343472203865411,
    -0.45642732524146667,
    0.98929066769280039,
    -0.13665034209222082,
    0.32691466031918059,
    -0.62313631345663978,
    0.2749660291126772,
    -0.23635831067169011,
    -0.32011412797501038,
    0.58665450829391119,
    0.059401973643993022,
    -0.10542962379075105,
    0.56582241764563257,
    0.97161700575222132,
    -0.66492087378395759,
    -0.11144297156084471,
    0.03993096716698763,
    -0.025914859504399312,
    0.9001394640189313,
    0.96722483540290249,
    -0.49821845604955151,
    -0.34193880732261517,
    -0.67052821799671658,
    -0.82416828154780353,
    -0.41726347031875677,
    -0.3621323906640207,
    0.90493405419631578,
    0.79039675360098327,
    -0.90395195218918467,
    0.25229527114531747,
    0.80797120640425524,
    0.49734692438382044,
    0.32574820952757655,
    0.71778952503473947,
    -0.0388306048879542,
    0.3144005915682766,
    0.14045940020143033,
    0.73212609148217656,
    -0.17507402094782987,
    0.8060075649088283,
    -0.34201267982926808,
    0.76371437113905061,
    -0.82938684515160821,
    -0.7659541535032699,
    -0.55771096868333925,
    0.89573824587079609,
    0.13501776062651438,
    -0.15994747968388134,
    0.049554024380424,
    0.42714057463553767,
    0.50974768097966328,
    -0.22197007537911184,
    0.18925893362111368,
    -0.52374376427556557,
    0.93636493940668419,
    0.31537352936126917,
    -0.78589910724475009,
    0.81345894924060391,
    -0.719386871773464,
    -0.31095294901679871,
    -0.52807036765295567,
    0.48456927551169371,
    -0.33240635848250533,
    0.42759060087967216,
    0.77868330188965573,
    0.56205504926017258,
    0.56882216668167263,
    0.8480328926108931,
    0.010447610640175409,
    0.020678534647765812,
    0.748097628237725,
    0.3078048756848113,
    -0.85084083855656945,
    -0.905868100889897,
    0.30923751523217069,
    -0.26193282718860211,
    -0.51255196217100685,
    -0.90457406449344668,
    0.73354268713553572,
    -0.31300171618955286,
    0.502849848709465,
    0.064881533880197129,
    -0.25915727077944073,
    -0.33109252682472234,
    0.742547590165654,
    0.02994128178336708,
    -0.69191200923729324,
    -0.15050802619685788,
    0.78142458562805528,
    0.64579586575077652,
    0.10029969881302669,
    0.32700045096082642
  ],
  "hidden2_to_output_weights": [
    0.81679515625200949,
    0.75443134724834526,
    0.19424401838064376,
    -0.33449072080407793,
    -0.37541302636983476,
    -0.44067105624856007,
    -0.13045076054076232,
    -0.88837600680458173,
    0.97203052135744628,
    0.28698486801562129,
    0.82960490967594325,
    -0.9711245102673417,
    0.67904294639781249,
    -0.7980571947051478,
    -0.3711292368225424,
    0.095127034511010677,
    0.16701872049226374,
    0.19829776659528631,
    -0.17207450846772388,
    -0.88132504275130341,
    -0.9200837378949317,
    0.59361484441608892,
    0.18619720227373637,
    0.4070480984668472,
    -0.25627345370886545,
    0.998686168342217,
    0.68504301071401819,
    -0.25125797989371135,
    0.25396705849746581,
    -0.28066980712146949,
    -0.93339169301716218,
    0.36465174488939889,
    0.92037883583473912,
    -0.57890282272310123,
    0.85629191242917058,
    -0.9867197666255384,
    -0.23994603345168108,
    -0.86418052942686741,
    0.64194644318984184,
    0.74442548386027352,
    0.64006339089947906,
    -0.14669129492095268,
    -0.63991779537867655,
    -0.78413501930615637,
    0.2352766242042541,
    -0.28803276051209903,
    -0.01013547322253483,
    -0.18164398017415961,
    -0.47978270029639014,
    -0.94589655843837961,
    0.42501228927868051,
    0.24940809945082676,
    0.52875831328740275,
    0.83170715804756945,
    -0.043850133681600068,
    0.873204825386966,
    -0.47740593714518753,
    -0.42270977581977365,
    0.69024255019158254,
    0.81948730806796211,
    -0.43413558762247473,
    0.70662052450078572,
    0.62626692355902258,
    0.60758588631059318,
    0.22037656103278347,
    -0.53504683521345575,
    -0.89150334610208093,
    0.25794576912091371,
    -0.65434910713431849,
    -0.384409470197004,
    -0.66492693203730835,
    0.031199249919131145,
    0.55635132340544424,
    0.0835000076720025,
    -0.52138843365078258,
    0.22660755702602087
  ]
}